{"nLayer": 5, "alpha": 0.03, "reg": 0.0, "Layers": [17, 8, 8, 4, 1], "w0": [[-0.021304182148492154], [-0.015520022030221722], [-0.10791076425828589], [-0.020965014398028826], [-0.0016305986770299655], [0.020749275928029325], [0.027702483169273928], [-0.08984577868368974], [-0.030734096606449747], [0.021662535018209767], [0.03192931117512629], [0.02660967056472643], [0.07586201877762755], [-0.08570880349496601], [-0.07479372083739873], [-0.029607860799065584], [0.010805638760462059]], "b0": [[0.0], [0.0], [0.0], [0.0], [0.0], [0.0], [0.0], [0.0], [0.0], [0.0], [0.0], [0.0], [0.0], [0.0], [0.0], [0.0], [0.0]], "g0": "ReLU", "dg0": "dReLU", "w1": [[-1.5817069311828196, -0.1502011743275034, 0.13448880397246865, 1.0161005388175892, 0.6635920349324679, 0.8858287699043113, 0.5413584259256287, 1.2298199167089388, 0.972178882148209, 0.7244978950938665, 0.24136826558940913, 1.0720637571818232, 0.6093464021289813, 0.41691259417294374, 0.43775699590996364, 0.2371814270377567, 0.10622237625800668], [-0.29585934603845654, 0.09930587452802506, 0.13982084169556092, -0.306352051257579, -0.4580631349256949, -0.1680465700664174, -0.4239159119261997, -0.3477409808520631, 0.8319491632294101, -0.0021816323887963794, -0.556363660189896, -0.00800193307069701, -1.9625392581287997, 0.20744414667488545, -0.2225724051921972, -0.0595047032326999, 0.010422315509844116], [-0.64851766267757, -0.029306380726306754, -0.11503438993585519, -0.1154374136792411, -0.7301981475837613, 0.3050539877285595, -0.133065349031306, -0.24948225796835402, -0.13637178070069247, 0.2629239200661591, 0.4507441624628874, 0.2538804315938558, 1.6914162400820565, 0.19565380716799474, -0.2644504321609563, 0.026192899503927308, 1.5514330431726182], [-0.8552664140619801, -0.08455302553622795, -0.027070981347503367, -0.35405094298399103, -1.8892352732145996, -0.22115558800496304, -1.7824287970673356, -0.04593007900226507, -2.0236794768737223, 0.03319722404207237, -1.5737460361723237, -0.4531250854204321, -0.2782408064249784, 0.12479287904114464, -0.7816535787071532, 0.03202368146319852, -0.45747501185386735], [1.85564545553071, -0.008735965095599343, -0.14200907031960944, 0.3351258372145873, -0.2868974696161693, 0.3654054378450128, -0.2594356676862723, 0.7678353656498006, -0.06434778149615797, 0.47824171569142226, -0.27586433555159584, -0.053252962260157306, -0.3406736973853592, 0.3815683685353979, -0.011621372454561414, 0.09291820590099412, 0.16612980561219343], [1.510792276066103, -0.09414398031632261, 0.030570640661402512, 0.6775853645550414, 0.020366111849537506, 0.46068271530902055, 0.24407135834611546, 1.0025975607106796, -1.2401420483779475, 0.27167257662554656, -0.0031658595909780374, 0.8456070100965425, -0.8744184676365058, 0.0834611636483286, -0.1392161601414396, 0.07170778413006729, 0.07375175851870265], [-3.5220475650902148, 0.046843920975597024, -0.1888214340244403, 0.6031616026102874, 0.28632605876727163, 0.13098803308506216, 0.07330412733938156, 0.8156634896909244, 0.7862235689155184, 0.06937433766870768, 0.19049461615533994, -0.7863408678796315, 0.7286458694775693, -0.11605891295753691, -0.7550094733913425, 0.005081858634351756, -0.1915436561843151], [0.32068511304418107, -0.2233753507449271, 0.024954109173133353, -0.044882520203268196, 0.33731684647212057, 0.19423386684740246, 0.23636120062001328, 0.8444006776675042, 0.28936263588287137, 0.2290542089617054, 0.5368563829503356, -1.756490168986203, 0.2404264954073744, 0.20324303731469565, 0.5122883001823002, 0.0547639129347707, 0.049402228034973454]], "b1": [[1.9808090168334886], [0.7115849848510579], [0.5025307534511616], [0.7210182732478242], [-0.8114727023402989], [-1.5905458391118377], [0.7366664639229472], [-0.24665911530576282]], "g1": "ReLU", "dg1": "dReLU", "w2": [[-0.23060725390553535, -1.5352601533432442, -0.1922609169238619, -0.8585072842339962, 8.090134066233103, 0.7900869289791501, 1.056796144899178, -0.5422535618555269], [-1.0398475050917049, 0.8481619884449039, -0.02215485411376163, 0.34043066793116455, -0.7778752600021283, 1.338842115763342, 0.6751932630075071, 1.2464921047650708], [0.9946141284447626, 1.2597390595819236, 2.2025526850686363, 1.6244607602271086, -1.5130481158904432, 0.6336828178146665, 0.7293583733673927, 0.8997500067426191], [-0.17962200983123666, -0.3063814250560679, -0.5678213072751896, 0.5119493479791449, -0.496211326879153, -0.44217184284384736, -0.9492916965319048, -0.4780887951845075], [0.593517238291011, 0.6630495632169732, 1.55500977033491, 0.11879054024741861, 0.6053686337805285, 1.3309584149749627, 0.9550926384554178, 1.2494378979933218], [1.9551329540217433, 1.080568646601991, 0.389895178896349, 0.85958200102186, -2.3250744375075065, 1.3496824569048613, 0.8450138513460963, 1.031184870696859], [0.6501088259870417, 0.5682021100202701, 0.3686924085551661, 0.9538601245469238, -1.8787653622485898, 0.2373020573726072, -1.3944523422991377, 0.24198249643383424], [0.345745542328313, 0.16908462302761554, 0.9187501301231563, 1.1462428261538748, 0.44840557335699205, 0.2393730352572075, 0.33765406601182363, 0.05223708389124125]], "b2": [[-0.7024880056118875], [-1.1010621945220553], [-2.207286259349696], [2.9671241151251353], [0.34286783555867256], [-1.939937732994756], [1.6039659497001177], [2.483307363208276]], "g2": "ReLU", "dg2": "dReLU", "w3": [[-0.6647277018337392, -0.17454790012840982, -1.918200672079182, -2.71769665808571, 0.7453768429480353, -1.0125559128031563, 0.9272152181035563, 2.1797192675553503], [-0.021409214947617015, -0.12459099372586935, -0.18399451697432356, -0.24124068467193652, -0.09192560126725585, 0.07751675040842101, 0.005128495260920147, -0.05002181593207778], [-0.14914181311603555, -1.8305999112201181, -1.583484605933225, -0.08531075230193536, 1.6692148926116968, -2.1237437237820824, 2.0237779952550605, -0.21254742045064218], [-1.0367340423934617, -1.158930168614313, -1.3781257313020652, -0.25562943908855806, 1.346959144094325, -1.7277251065462, 0.3120982540977326, -0.19747497215443002]], "b3": [[1.558639401171158], [0.00025473600207207524], [0.4943286121018481], [0.1884737365020512]], "g3": "ReLU", "dg3": "dReLU", "w4": [[-1.270903572899685, 0.04858842008458519, -1.8860276102138545, -2.8680291768784634]], "b4": [[6.804816118283072]], "g4": "sigmoid", "dg4": "dSigmoid"}