{"Layers": [17, 8, 8, 1], "w3": [[4.415247859094908, -0.3790533570527513, -2.4757541253813793, -2.0691572969353937, -3.7151009726187616, 3.9047738578458158, 3.0286353741686773, 3.850344194341279]], "fun1": "ReLU", "fun0": "ReLU", "fun3": "sigmoid", "fun2": "ReLU", "b3": [[-1.9972257773969688]], "b2": [[3.4889855186717154], [0.17804032810587478], [0.7771864124285569], [0.6582082210887329], [1.3259537601000948], [0.4095593409237614], [-2.909655559337222], [2.68670102077255]], "b0": [[0.0], [0.0], [0.0], [0.0], [0.0], [0.0], [0.0], [0.0], [0.0], [0.0], [0.0], [0.0], [0.0], [0.0], [0.0], [0.0], [0.0]], "b1": [[-0.8435209207654535], [1.5644425930554267], [0.9332237643199017], [0.372385897947164], [-1.8107997568671488], [-0.9950476846590629], [1.94622605103956], [1.4215363924781181]], "w1": [[0.746566316674386, -0.0819522839238909, -0.04150083727672292, -0.06380291267871681, -0.7185738754802782, -0.2570572006455741, -0.395977769171022, -0.1257844923919577, 0.055101869355421926, -1.699388888983187, -1.8227785641081762, -0.11079408546913672, 0.2942797407445404, 1.6179081738037935, 1.253467422600401, -0.036065377626838466, -0.12266731885743994], [-1.5785699127384667, 0.08288212643856546, -0.09800007204112227, -0.36658442013750575, -1.0950243569929956, -0.19944911993997327, -1.0526377191674685, -0.13960568951194022, -1.3221488666188645, 0.18988588649921953, -1.4868346804115478, 0.05355991677569706, -0.31622633398427624, -0.4209030548696792, -0.3353847852250535, -0.0011067795363675784, -0.6763828347910391], [1.1375248814319026, 0.06596936784909009, -0.18320638679098025, -0.15951240975990247, -0.218578818857383, -0.08193810264329178, -0.32945873933771574, -0.3053070005083193, -0.28490003873683467, 0.0069649087877289035, -0.3266500153001828, 0.04111366810968571, -0.6445555084395276, -0.601556017181558, -0.270868269639093, -0.13345016695429635, -0.10244744450362435], [-0.5386145269431282, -0.08609051848243426, -0.036695499112435574, 0.2549065735632101, -0.05642650325039472, 0.3172108927305642, 0.036841265087976076, 1.2611387756608037, -0.2404636390536917, 0.9577110061097838, 0.3708450165990259, 0.8241934078886407, 1.5941245606792613, 0.9013818106771948, -1.2002059829637937, 0.8659010750984315, 0.5614076773990109], [2.0318363194317146, 0.1633737428977352, -0.11971972952323684, -0.2719698953083404, -1.250754800320299, -0.20561692834429457, -1.222610545624591, -0.11067296076808177, -1.2711530807849896, -0.21331420470898743, -0.6579232826306204, 0.13826097298117182, -1.3460943212525578, 0.11063204553202353, -0.616690888040617, 0.08680515775521792, -0.10862618104831287], [0.9133672064281846, -0.1483354424535056, 0.12269008386461762, -0.00025131255514616256, -0.23413333143059345, -0.3045652267603805, 0.15493387062702893, -0.01633392625079181, -0.618464693737842, 0.40226291309035234, 2.384025614841804, -0.998828462086855, 0.40520452215473207, 0.6177925015446327, 1.0476135873888297, 0.005501064397758873, -0.10247660780720474], [1.5683903538548152, -0.09946765215806268, -0.042235458762378296, -0.17025888618153967, -0.21099151021903637, -0.1537252954077063, -0.055770544841393835, 0.3659912095001186, -0.32821120128860726, 0.124570934191625, 0.2283900749401213, 0.2601763621730631, 0.3650048706255447, 0.9916838151815524, 0.47013315749019147, 0.4200482367880913, 0.12459790246540067], [-1.8713137103941901, 0.006243922681487437, 0.06096921097310392, 0.5225016629603877, 1.0986499158097507, 0.6676593588333564, 1.1019229516817262, 0.9255886082748113, 0.9227656055492496, 0.9685515355586842, 1.0221632539474865, 0.9063205846556186, 0.19920868145832638, 0.5247346171543756, 1.2682557086109498, 0.41354497363907944, 0.36565250550317396]], "w0": [[0.08145742364989562], [0.09632120323981638], [-0.04486484596061047], [0.020780007717321136], [-0.11346335696598756], [-0.007126405446250404], [0.02188670466631457], [0.008758706585238812], [0.01022798771534174], [0.0411935131030704], [-0.04456217036954473], [-0.10863686130939154], [0.10646501864133917], [0.005881118969255467], [-0.06406149543630639], [-0.11388245569011109], [-0.13217419017603693]], "alpha": 0.01, "nLayer": 4, "reg": 0.0, "w2": [[-1.7786036487767924, -0.12482344991175173, -1.3520735420078842, -1.9597018601051814, 1.2289895052202802, -0.994127053730156, 2.8056479434149826, -1.8124060084234137], [0.2376002407182966, 0.24744913810487656, 0.11470519517183264, 0.09740670568497256, 0.23034485097806787, 0.19395526121892706, -0.009685461270180808, -0.030340433276403823], [1.3452744088480708, 1.5117283908604136, 1.04618195311211, 0.5783581407452654, 1.5631487853092039, 1.3339112627405734, -0.12084654907596629, 0.03209847942047194], [-0.9004500945110668, -1.3823003454021117, 0.6261158891595527, -0.5605059371223164, -1.320644709565959, -0.5023362674971974, 1.7036199937895165, 0.2069789433966262], [1.9907478149114837, 2.074664274710119, 1.6268297071636595, 0.8794305751112549, 2.339665603240688, 2.08253005507191, -0.25112405267846916, 0.057151190627159947], [3.357103660364959, 0.5678438218729344, 1.5386361811890883, 1.3396510143904765, 1.4231953326792588, 2.518762845245025, -1.9780744048193504, 2.1968334287123774], [0.4465527342025597, 1.4544192860868963, 0.27462552325254763, -0.3088598788599714, -0.07792690178491359, 0.7331253089232411, 0.5508619044782072, -0.9397647775338748], [0.9869997226585553, 1.7789339041955168, 1.0036030693144253, 2.394435294226619, 1.1198789168125272, 1.0810640381670353, -2.3514266218732742, 1.7742504559084609]]}