{"nLayer": 5, "alpha": 0.03, "reg": 0.0, "Layers": [17, 8, 8, 4, 1], "w0": [[0.125956643751219], [-0.03433675532637677], [-0.06161466732652039], [0.18285074054677564], [0.10458521371488538], [-0.12250855920354405], [0.15308317880210776], [-0.11602707050969847], [0.022046922174859925], [0.11766091343357543], [0.06265012200454312], [-0.01552494375884448], [-0.1882225497618568], [-0.00716374710183408], [0.1367779008740648], [0.04611860610246788], [0.04111536061831775]], "b0": [[0.0], [0.0], [0.0], [0.0], [0.0], [0.0], [0.0], [0.0], [0.0], [0.0], [0.0], [0.0], [0.0], [0.0], [0.0], [0.0], [0.0]], "g0": "ReLU", "dg0": "dReLU", "w1": [[-0.08928637829986923, -0.10594904611392308, -0.09762785112510465, -0.7023314818271581, -0.505298120972146, -0.7956310624815739, -0.9639720646284134, -1.0878265716762934, -0.31449437541864256, -0.5009107220674844, 0.7578433599879729, -0.6555194294827352, 0.47768244362148937, -0.8743865256037493, 1.4350375724477487, -0.3514096552984548, 0.313687686697209], [-0.1434695487096489, 0.10056659677482103, 0.057222802695866895, -0.35861507816756283, 0.68110983066661, -0.5629328665856798, 0.15057506905386775, -0.6415701088378889, 0.9823323022684348, -0.36553086966690945, -0.8522870713169167, -0.3530659056422241, 1.0737557065424477, 0.6355562164307482, -0.06559895201467868, -0.1898410029047943, -0.7726700070369782], [1.7503526243303238, 0.10085871741291047, 0.08880892624901748, -0.5223025509419292, 0.2984832422909593, -0.4493575549121509, 0.05915193972645868, -0.5657693125630714, 0.29370658664403015, -0.39879472998071774, 0.4158915088643137, -0.3216976642104642, 0.5468757700652248, 1.2231841817020441, -0.49594757105627196, -0.0968608532591684, 0.08512005204132174], [-0.3877933769232689, 0.10146883496633015, 0.0014657204414483987, -0.4443041191241748, -1.9576064093936068, -0.37232799970030733, -2.0026382241295977, -0.22866627159333214, -1.937439933705893, -0.3303363589359247, -1.678250588067199, -0.1528884511288338, -0.9534906130159148, 0.31344527041081127, -1.202723771085594, -0.11045712192784425, -0.5791048678750277], [-1.3913634806449504, -0.012226889263454235, 0.022547375347250972, 0.8858864224159273, 1.6919455621427795, 1.132082149515855, 1.261717718722505, 1.2004567369780292, 1.2863432168984914, 0.9796136628066213, 1.0762789134870174, 0.8659378066438085, 1.772995172976516, 0.6038860468474097, -0.8451271552335596, 0.5538796453288092, 0.7839777413041524], [0.412433128869672, 0.1091297974390521, -0.035800523833241164, -0.08840284806225741, -0.18468703888726845, -0.13829471519847644, 0.0593679019783339, 0.03163044627558026, -0.3728358694019102, 0.042303394629572055, 1.4333735470824651, -0.1927984120954305, -0.017725728751100116, 0.5930773718284181, -0.65555107969405, -0.17134916419310736, -0.567377544406773], [-0.3155575602555489, 0.07145645715517569, -0.08789096077835239, -0.6233874461969026, -0.3043403097042728, -0.7550816748575564, 0.09566573146952734, -0.8817620919429693, 0.43546547476726327, -1.0943250376525075, -0.11850443157916331, -0.7052170489451671, -0.1729936078244481, 0.34716300587999743, -1.7258896009529736, -0.5346624126340711, 0.9213967353564435], [-1.47965486814887, -0.04542471551869104, -0.08282943685342045, 0.20882563900527015, 0.627567705839867, 0.3442635844069363, 0.7110820486268451, 0.25431552559112447, 0.8314156895962908, 0.004011662495628574, 0.3061589728769926, 0.22321612125752138, 0.16210270974715024, 2.090143360468351, 1.3300970413635969, 0.3049371353349205, 0.4200585112836057]], "b1": [[-1.4068263587065812], [-0.2931246726739799], [1.6239787216193384], [-0.03239991957886761], [0.7539577337810269], [-0.33705839388485526], [-0.7163585822025424], [1.4214266112961926]], "g1": "ReLU", "dg1": "dReLU", "w2": [[2.0957582826431875, 1.1975408026913195, -1.478276274372962, -0.17841275091716366, 1.734477810431324, 1.3700992830766259, 1.4697453563058882, 1.734395736098125], [0.5183742877734207, -0.29772309772681166, -0.15764455354163212, 1.0746196243938348, 0.5994826548150423, 0.4165119154662712, -0.2101415379441794, 1.1765127677577387], [0.6550200358365582, 0.02617629280402289, 0.6926518460832644, -0.671615305037902, -0.3756132179216595, -0.14145323726341966, 0.2721678480462138, 0.6547003333155639], [0.0358392216707162, 0.5115812706261791, -1.586444164448195, 1.2362780516073084, 1.7546918669877103, 0.6493720577266174, 0.6313954225611962, 0.7468286207504693], [-0.04064877232908284, -0.4423838206056903, 0.10582349093788439, 0.18824210702433358, -1.3245626904504437, 0.7275959780345383, -0.09363141241719646, -0.26663733492734504], [1.6874507840733939, 0.21036885071834152, 0.12424890042865899, -0.2458911733677238, 1.8995563650134772, 0.36186467067334654, -0.488849085481262, 0.6143869830781327], [-0.9532494820096674, -1.5172929728953846, 2.143263133333322, -0.2044811322417375, -1.2418259212621647, -0.9592501498945378, -1.636992657443604, -1.4378409471894018], [-0.5164132741273034, -0.5778925367409474, 0.6356973826014373, -0.834403124026864, -0.15510472979870416, -0.0831725774800226, 0.7138803075758516, 0.4081593651438214]], "b2": [[2.1073358034043186], [-2.376077894051477], [0.1982107049662116], [1.032934614010586], [0.6489498359830487], [1.736474609511425], [0.22689315496074472], [1.291992589288332]], "g2": "ReLU", "dg2": "dReLU", "w3": [[0.3096271852434502, 0.08067831259835184, 1.170374718123979, 0.681254990775375, 0.4722370499651986, -0.5479027967073802, 0.549696259741948, 0.13907437830352834], [-0.08857961235539366, -0.08658124768405845, -0.3536159283419129, -0.2524267990001226, 0.08127345692484836, -0.6231997635988578, 0.15372741702919912, 0.7142237308606298], [0.05898292744264286, -0.5787187718471866, 0.7086139028459442, 0.7603616585642478, 0.08073844749737885, 0.0818340133889457, 0.22885204685250535, -0.5994552490574229], [-1.7760503991947736, -1.402257754837452, 0.932156056349223, -0.7735868058042856, 1.0989552729350605, 1.2283811728891423, -1.3656429190401207, 1.0010349403475023]], "b3": [[-1.2272584814785312], [0.5671769986129679], [-0.09788737613234841], [1.8239897782701369]], "g3": "ReLU", "dg3": "dReLU", "w4": [[1.079622233063823, 1.1013726271511723, 0.7230589821218012, -2.27257896931117]], "b4": [[-1.4907683561358014]], "g4": "sigmoid", "dg4": "dSigmoid"}