{"nLayer": 5, "alpha": 0.03, "reg": 0.0, "Layers": [17, 8, 8, 4, 1], "w0": [[-0.08814780186471458], [-0.0008132840834685795], [0.13614349699776282], [-0.04113319618197544], [-0.08505259770606198], [0.06450364785631249], [0.10990021491018903], [0.0026077154302846395], [0.026560081430463872], [0.08683410475782426], [-0.0045193616468572635], [0.030115266940630128], [-0.059617652141598455], [-0.0829344876221399], [0.030642217196674305], [-0.09235971993941886], [0.1783935041832294]], "b0": [[0.0], [0.0], [0.0], [0.0], [0.0], [0.0], [0.0], [0.0], [0.0], [0.0], [0.0], [0.0], [0.0], [0.0], [0.0], [0.0], [0.0]], "g0": "ReLU", "dg0": "dReLU", "w1": [[-0.23494341716692477, 0.16957703606219876, 0.16825160970917913, -0.5757682280985231, 0.12526679913156227, -0.379194617222497, 0.23840919697518093, -0.8512117500156647, -0.05903872744290533, -0.7348638843524582, 0.05362243975682372, 0.4031674804160212, 0.12958158865805244, 0.3762219948445243, 0.1726016562117965, -0.23280674271579108, 0.18728094181782923], [-0.8154413921337784, -0.1281483365544449, -0.004134851032714811, 0.050060362526254266, 0.22683157309303584, -0.01452263940909222, 0.4393496660453912, -0.005791271663788685, 0.6496696638106796, 0.2663112757881535, 0.08671682528867111, -0.5748248549006947, 1.7512926268955131, 0.018977125749272742, 0.19301487625045924, 0.14189314382512433, 0.06865381492196865], [-1.892874198184538, 0.13961012166402187, -0.05461004361942182, 0.5069573103612963, 0.3235108648080583, 0.4657278362650747, 0.2093342392253601, 0.7558305858023011, 0.21758538756921436, 0.2681511245422515, 0.26537731246871604, 0.5747952177063641, 0.5491065440534331, 0.19125267183542807, -0.033705193749763315, 0.14594507432660894, 0.2005738231917087], [-0.6520829659118901, 0.030813600933552024, 0.030955797727135914, -0.02414601441191014, -0.6798040226606319, -0.12643754757093806, -0.7277137233594841, -0.0870340212813182, 0.22785658281737553, -0.16589859691867542, -1.0033334026362002, 0.4097059962950054, -0.7331608620306357, -0.2514102085144786, -0.40128412307884137, 0.046841662831443975, -0.23257011539972658], [0.2657610574657072, -0.06777192228267924, -0.03224159491589226, 0.4613552096421196, -0.09683395734823844, 0.4776328249644435, 0.020842559118030925, 0.6123779214539785, -0.6944152239387975, 0.6096605130905463, -0.1859340388053285, 0.8190708737084997, -0.15405482826874434, 0.33692195879581865, 0.34383606249456705, 0.16045270483887808, -0.1242309185602716], [-0.5092321269842192, -0.0003513936397411183, 0.11361244010837637, 0.03283071984579683, -1.1813531772944628, -0.09747754600311015, -0.9650433259679041, -0.1662795632080605, -1.4755803672688412, 0.01261900888211453, -0.43099706830038853, -0.32391921612118396, -0.5121165405709276, -0.347203052792402, -0.5682775515575927, -0.12219314680116382, -0.2408706527458228], [-1.0576494674669046, -0.04878265673354933, 0.19833092982255465, -0.22800865699038972, 0.2743434100758339, -0.0015276623263688483, 0.06486999316786157, 0.34230051390628136, 0.22517060783473988, -0.1951682138694173, -0.2365277824590223, -1.2867687237885577, -0.418074806343467, 0.42695477574648866, -0.08096503720015491, 0.10164374615759852, -0.15195415507713844], [-1.3458376726473822, -0.0409283103737626, -0.044831645169882674, 0.6797883594854716, 0.9997730926196715, 0.7001304837846418, 1.244488191871737, 0.4855572360224652, 1.4438634257911387, 0.42202312176222356, 1.5941628240596106, 0.19991409006824712, -0.24684988168209474, -0.10904998567455591, 0.4871727680109228, 0.06555922387720693, 0.3829926003768046]], "b1": [[0.3217733103795148], [0.02850544173453929], [1.5546226242215684], [0.913919358044415], [0.055538062029708304], [0.7261403015601323], [0.8084549332076079], [0.7285458022718336]], "g1": "ReLU", "dg1": "dReLU", "w2": [[0.43470521618325836, 0.8265037072022726, -0.4652762646547868, -0.17751061174667818, 0.04445508050353254, -0.2912932593926245, -0.42815671778975406, -1.6371003576616916], [0.4807938704055646, 0.47263236952939686, -0.7581363670566904, -0.039097500243694946, -0.5625594665368169, 0.7343585134884261, 0.07643123708578134, -0.6213005441129253], [-0.06713129841301126, -0.03712324764589899, 0.03826257468645071, -0.06960322078275305, -0.14480003002281583, -0.061650354344027575, -0.0697779683383704, -0.011675761037805453], [0.1766792371247748, 0.0566840229923914, 0.7056301386800087, 0.7945772722151856, 0.25684965056348263, 0.2527131480836308, 0.7940918434133896, 0.06548804991638764], [0.8106570044280504, 0.6575424232746285, 0.863595114936876, 0.31133857281452004, 0.22601921088516788, 0.31525201538821096, 0.5857990098697592, 1.6066557545868818], [0.8928778255774837, 0.9411822744002696, 1.394929661219851, 0.977236813578909, 0.8090587266579908, 1.1321468667434105, 1.454386959849727, 1.686632331506495], [0.13952872256875706, 0.32942623292004003, 0.2897886471344873, 0.046962378321188526, 1.0008541281976098, 0.16875925659208213, 0.5949731004819656, 0.45345164591252296], [0.41697368940645874, 0.5034310174025171, -0.3669447369402415, 0.26038745630170423, -0.5328478784412908, 0.9444521173462526, 0.6171551325995946, 0.6181962163303282]], "b2": [[-1.1132641189069739], [-0.3479525748067081], [-0.012677997613693202], [-0.3592504826712856], [-0.28451236452388046], [-3.1182308660214426], [-0.3828211990009643], [-0.13181083062449145]], "g2": "ReLU", "dg2": "dReLU", "w3": [[-2.1280025174794566, -0.8424662935454819, -0.021520028353984394, 0.9455114216362759, 0.9801510632780718, -2.2901388071367337, 0.7070243677801802, 1.2225361475481338], [-0.49790834956049396, -1.038886337414441, -0.040180278571061545, -0.4871461832671525, 1.2248476866752807, -1.8474762118176393, 0.4849881407901564, 0.36259306290776067], [0.05643201830101325, -0.0035970524580683457, 0.045285601998718665, -0.09040937317388026, -0.13110714058693224, 0.06998931196702833, 0.12023620770333499, -0.2885054466532633], [0.5736842353974871, -0.07414949558370959, 0.016326243397205176, 0.17016952273364408, 0.19571699253093014, 0.11398526753326627, -0.5627404992046514, 0.33406845052499357]], "b3": [[0.30948273137254634], [0.5164807356094165], [-0.20775454380434494], [-0.3689806703414023]], "g3": "ReLU", "dg3": "dReLU", "w4": [[-3.3970097919072946, -2.6155355155307562, -0.19257366880464033, 0.9089290926613515]], "b4": [[4.412471519495158]], "g4": "sigmoid", "dg4": "dSigmoid"}