{"nLayer": 5, "alpha": 0.03, "reg": 0.0, "Layers": [17, 8, 8, 4, 1], "w0": [[-0.05821711531391251], [-0.10430051505548776], [0.01865769893111637], [0.25818115763535227], [-0.05735326031699017], [0.005039296953286585], [0.0040352156255533955], [0.09582373568590113], [0.07299474713482927], [-0.13800671069047646], [0.08044282254041074], [-0.02462000260888121], [-0.012065200779878073], [-0.10869297540873382], [0.0053534593125153015], [0.0400250937542311], [0.15712877288995197]], "b0": [[0.0], [0.0], [0.0], [0.0], [0.0], [0.0], [0.0], [0.0], [0.0], [0.0], [0.0], [0.0], [0.0], [0.0], [0.0], [0.0], [0.0]], "g0": "ReLU", "dg0": "dReLU", "w1": [[1.2883499873694, -0.08928017778808835, -0.11013224705262048, -0.03941465540336395, -0.2849037676811265, -0.3927937746365587, -0.044900882979952296, -0.7498987136347786, 0.4697500276370594, -1.3812208870316527, 0.7126833563832148, -0.4368784958847202, -0.2488544117519537, -1.4431515347941453, -1.4327109494113393, -0.366369753426917, 0.1007067661481072], [-2.009017104989702, 0.08493901762893967, 0.12491940599665921, -0.12885332180642234, -2.555114112562749, -0.0691196533339456, -1.9627072978971394, -0.06977962527019521, -2.2601417060267477, -0.21458631995426156, -2.096193515745461, 0.08805161727806785, -1.3968308167493722, -0.1388060116876068, -1.3041443857960802, 0.11182750602738811, -0.7426070240683138], [-3.165815174709701, -0.10789447729254545, -0.05574455151841819, 1.3379324446492138, 1.2448347903181007, 0.8334749417624944, 1.0096574396261615, 1.5462391131143605, 1.241466233546281, 0.7517108119607746, 0.9544008530477182, 0.8748492779223203, 0.6405212456008391, 0.6386358603902663, 0.15673769812960667, 0.7715210967350491, 0.440281436140315], [1.4200583226333183, 0.13633070534392364, 0.10908069865083159, 0.5489087265753553, -1.2559711607409594, -0.292078074496413, -0.2031678981792331, -1.3965102989540141, -1.3776890813739804, -1.3739036370859494, -0.993234437142704, -0.7840684746150145, -0.748333622165124, -0.6327316149453608, 0.601323553293566, -0.2926876484532926, -0.415396757820718], [2.2619016932823897, 0.12626101561279943, 0.0011886021862393145, -0.42851450975130684, -1.1476562826567123, -0.1396963042665758, -1.4236668534685633, -1.365599161721547, -0.04033189072301705, 0.7086791230494623, 0.7217794843611334, -0.8121620362020682, -0.4078002090687296, -0.8194967509754482, -0.24104647333797286, -0.5843907098606077, 0.022747762034499002], [1.035395511013227, 0.10073810702168076, 0.016938548255343903, -0.04058066392181911, -1.00364551315076, -0.6004491071969256, -0.2160464955487101, -1.441660346871911, -0.7005452035279844, -1.3308523511828914, -0.296401764113657, -0.9516881281772869, -0.6169014992550436, -0.23649804595229004, 1.7890835202305608, -0.6278949513652223, -0.42261358830016127], [-2.0218432999409663, -0.0871103582332688, -0.006439220599870389, 0.10752697901731853, 0.6201826511022699, -0.452963213622483, 0.5231346787742339, -1.247473138978629, 0.9936696219020916, -1.2689075094377278, 1.0091766730918905, -0.3493272526020951, -0.07266358789666935, -0.5726814695242965, -0.3887838218341642, 0.015396083179570925, 0.11676671174524011], [2.103488419107028, -0.06799626071027326, 0.1640440790958541, -0.1050199144295608, 0.14798134400394, -0.3174186173120761, 0.123270136179512, -0.5416231096215428, -1.2746913201072525, 1.7469410677938986, 0.44711792714359094, -0.4124210574073309, 0.026882736638219478, 0.008300017365696234, -0.026505345487960578, 0.10672874920181352, -0.0703125512153142]], "b1": [[-1.2800898557639513], [1.2233400281833824], [3.067479128624185], [-1.702518205594066], [-3.033245787000479], [-0.9410416669802799], [3.619020579638984], [-4.985413244380934]], "g1": "ReLU", "dg1": "dReLU", "w2": [[1.091109578864855, 0.1895332234540129, 1.8887507696524206, 1.6767055643235929, 1.1062429114520356, 0.5154255277434432, -1.7978279579912078, 1.8208467846849403], [-0.1265028216432316, -0.8610876356276655, -0.18480376205061894, 0.7174909961594058, 2.51046285528338, -0.1947623995351344, -1.3043420161994204, -1.2450571563406323], [-0.7820260328351284, -0.978683783228375, 0.017785791432046654, 0.6620816197123889, 1.4104615869618493, -0.6949614301606679, -1.3536329030799499, -1.0901715560417722], [-1.1981789211507714, -0.007538527791024193, 0.6952784746151743, 0.9240302706352885, 1.3054233459866833, -1.086801604075072, 1.316901631904625, 1.4223649246901797], [0.004703113819283017, -2.974724416211135, -0.7858514511951029, 0.6541563992979795, 1.3676116087230261, -0.6729039593362186, 0.4140548160545044, -2.7965368403377058], [0.17567636095399677, -0.8238055755036958, 1.072021253506746, 1.1391067134797492, 0.7922471860874717, 0.15852088097458283, -0.7654067352653544, 1.4608888234470954], [1.4891852535591648, -1.5690573957678857, 0.8837055010570809, -0.9593344708450389, 0.19352304944807347, 1.5694903337422283, -0.2561287051225108, -0.6711350390027148], [0.6140622887883403, -0.5306181587995905, -1.2917430001898602, 0.3846605411406659, -0.0025175165284826804, -1.4949071915210987, -0.3167644834701571, 0.7999031631773135]], "b2": [[-0.6988768557596582], [1.6452732700930097], [3.1452824091617666], [-4.535105253106169], [1.9789817385501247], [3.0487802387604517], [-2.212714879600637], [0.3225783057438393]], "g2": "ReLU", "dg2": "dReLU", "w3": [[-2.0713641591537524, 1.7916330155209619, -2.06144087332664, -2.0440684344646414, -0.5336678964938951, 1.5743590950222022, 0.12934656769809197, -1.3969447460606836], [0.7704002726911962, -0.5514445047450097, 0.8587799455824089, 4.065748523118366, -2.9669223711311727, -0.2722911001492424, 2.4562617145963874, 1.0664863175924022], [0.21588084814470404, -0.7580857236923249, 0.03657946464922477, 0.2438543638365658, 1.1967161902694567, -0.032807633672949636, -0.1693864267601782, -0.6176924400251093], [-0.6021039856962288, 0.25776848149275783, -0.5679953158047452, -0.5522971613065782, -0.031980899862804626, 0.4039010700164366, -0.19744663845194596, 0.7738179263052177]], "b3": [[0.30632926003062944], [-0.23064821818159187], [1.1099932193350388], [-0.02485667159346729]], "g3": "ReLU", "dg3": "dReLU", "w4": [[-3.2316563987934597, 3.9447290610247623, 1.7875647374079622, -0.9045994273555901]], "b4": [[2.6835145067401998]], "g4": "sigmoid", "dg4": "dSigmoid"}